digraph Tree {
node [shape=box, style="filled, rounded", color="black", fontname=helvetica] ;
edge [fontname=helvetica] ;
0 [label=<subnet_n_transition_std &le; 132.301<br/>gini = 0.481<br/>samples = 251478<br/>value = [174794, 39652, 17061, 19971]<br/>class = astar>, fillcolor="#e58139a3"] ;
1 [label=<snp_n_place &le; 323.5<br/>gini = 0.463<br/>samples = 240812<br/>value = [170537, 39650, 11112, 19513]<br/>class = astar>, fillcolor="#e58139a6"] ;
0 -> 1 [labeldistance=2.5, labelangle=45, headlabel="True"] ;
2 [label=<snp_n_biconnected &le; 1.5<br/>gini = 0.446<br/>samples = 231546<br/>value = [166865, 38203, 8046, 18432]<br/>class = astar>, fillcolor="#e58139aa"] ;
1 -> 2 ;
3 [label=<snp_dup_transition_in_degree_mean &le; 1.504<br/>gini = 0.436<br/>samples = 226883<br/>value = [165464, 36295, 7778, 17346]<br/>class = astar>, fillcolor="#e58139ad"] ;
2 -> 3 ;
4 [label=<gini = 0.43<br/>samples = 225486<br/>value = [165402, 35526, 7732, 16826]<br/>class = astar>, fillcolor="#e58139ae"] ;
3 -> 4 ;
5 [label=<gini = 0.555<br/>samples = 1397<br/>value = [62, 769, 46, 520]<br/>class = inc3>, fillcolor="#47e53948"] ;
3 -> 5 ;
6 [label=<subnet_n_arc_std &le; 59.387<br/>gini = 0.685<br/>samples = 4663<br/>value = [1401, 1908, 268, 1086]<br/>class = inc3>, fillcolor="#47e53928"] ;
2 -> 6 ;
7 [label=<gini = 0.589<br/>samples = 3459<br/>value = [238, 1905, 230, 1086]<br/>class = inc3>, fillcolor="#47e53958"] ;
6 -> 7 ;
8 [label=<gini = 0.066<br/>samples = 1204<br/>value = [1163, 3, 38, 0]<br/>class = astar>, fillcolor="#e58139f6"] ;
6 -> 8 ;
9 [label=<uniq_transition_in_degree_mean &le; 1.007<br/>gini = 0.695<br/>samples = 9266<br/>value = [3672, 1447, 3066, 1081]<br/>class = astar>, fillcolor="#e5813919"] ;
1 -> 9 ;
10 [label=<n_uniq_transition &le; 106.0<br/>gini = 0.523<br/>samples = 3256<br/>value = [2125, 246, 230, 655]<br/>class = astar>, fillcolor="#e5813990"] ;
9 -> 10 ;
11 [label=<gini = 0.498<br/>samples = 172<br/>value = [0, 0, 91, 81]<br/>class = recomp-astar>, fillcolor="#399de51c"] ;
10 -> 11 ;
12 [label=<gini = 0.482<br/>samples = 3084<br/>value = [2125, 246, 139, 574]<br/>class = astar>, fillcolor="#e581399e"] ;
10 -> 12 ;
13 [label=<snp_place_out_deg_mean &le; 2.244<br/>gini = 0.666<br/>samples = 6010<br/>value = [1547, 1201, 2836, 426]<br/>class = recomp-astar>, fillcolor="#399de54a"] ;
9 -> 13 ;
14 [label=<gini = 0.687<br/>samples = 4008<br/>value = [1384, 832, 1533, 259]<br/>class = recomp-astar>, fillcolor="#399de50e"] ;
13 -> 14 ;
15 [label=<gini = 0.529<br/>samples = 2002<br/>value = [163, 369, 1303, 167]<br/>class = recomp-astar>, fillcolor="#399de592"] ;
13 -> 15 ;
16 [label=<snp_place_in_deg_mean &le; 1.672<br/>gini = 0.528<br/>samples = 10666<br/>value = [4257, 2, 5949, 458]<br/>class = recomp-astar>, fillcolor="#399de543"] ;
0 -> 16 [labeldistance=2.5, labelangle=-45, headlabel="False"] ;
17 [label=<inv_transition_in_degree_mean &le; 2.092<br/>gini = 0.34<br/>samples = 3329<br/>value = [2609, 1, 712, 7]<br/>class = astar>, fillcolor="#e58139b9"] ;
16 -> 17 ;
18 [label=<snp_n_uniq_transition &le; 272.0<br/>gini = 0.291<br/>samples = 3036<br/>value = [2501, 1, 527, 7]<br/>class = astar>, fillcolor="#e58139c9"] ;
17 -> 18 ;
19 [label=<gini = 0.03<br/>samples = 783<br/>value = [771, 1, 11, 0]<br/>class = astar>, fillcolor="#e58139fb"] ;
18 -> 19 ;
20 [label=<gini = 0.358<br/>samples = 2253<br/>value = [1730, 0, 516, 7]<br/>class = astar>, fillcolor="#e58139b2"] ;
18 -> 20 ;
21 [label=<snp_n_biconnected &le; 2.0<br/>gini = 0.465<br/>samples = 293<br/>value = [108, 0, 185, 0]<br/>class = recomp-astar>, fillcolor="#399de56a"] ;
17 -> 21 ;
22 [label=<gini = 0.484<br/>samples = 253<br/>value = [104, 0, 149, 0]<br/>class = recomp-astar>, fillcolor="#399de54d"] ;
21 -> 22 ;
23 [label=<gini = 0.18<br/>samples = 40<br/>value = [4, 0, 36, 0]<br/>class = recomp-astar>, fillcolor="#399de5e3"] ;
21 -> 23 ;
24 [label=<subnet_n_uniq_transition_std &le; 42.501<br/>gini = 0.436<br/>samples = 7337<br/>value = [1648, 1, 5237, 451]<br/>class = recomp-astar>, fillcolor="#399de5a1"] ;
16 -> 24 ;
25 [label=<snp_place_in_deg_std &le; 0.713<br/>gini = 0.088<br/>samples = 3005<br/>value = [138, 0, 2867, 0]<br/>class = recomp-astar>, fillcolor="#399de5f3"] ;
24 -> 25 ;
26 [label=<gini = 0.175<br/>samples = 1030<br/>value = [100, 0, 930, 0]<br/>class = recomp-astar>, fillcolor="#399de5e4"] ;
25 -> 26 ;
27 [label=<gini = 0.038<br/>samples = 1975<br/>value = [38, 0, 1937, 0]<br/>class = recomp-astar>, fillcolor="#399de5fa"] ;
25 -> 27 ;
28 [label=<subnet_n_arc_mean &le; 119.533<br/>gini = 0.568<br/>samples = 4332<br/>value = [1510, 1, 2370, 451]<br/>class = recomp-astar>, fillcolor="#399de54e"] ;
24 -> 28 ;
29 [label=<gini = 0.462<br/>samples = 3401<br/>value = [1230, 0, 2171, 0]<br/>class = recomp-astar>, fillcolor="#399de56f"] ;
28 -> 29 ;
30 [label=<gini = 0.629<br/>samples = 931<br/>value = [280, 1, 199, 451]<br/>class = recomp-inc3>, fillcolor="#d739e543"] ;
28 -> 30 ;
}